/* Organism #0 Fitness: -0.500000 Time: 0 */
genomestart 0
trait 1 0.100000 0.000000 0.000000 0.000000 0.000000 0.000000 0.000000 0.000000 
node 1 1 1 1
node 2 1 1 1
node 3 1 1 1
node 4 1 1 1
node 5 1 1 1
node 6 1 1 1
node 7 1 1 1
node 8 1 1 1
node 9 1 1 1
node 10 1 1 1
node 11 1 1 1
node 12 1 1 1
node 13 1 1 1
node 14 1 1 1
node 15 1 1 1
node 16 1 1 1
node 17 1 1 1
node 18 1 1 1
node 19 1 1 1
node 20 1 1 1
node 21 1 1 1
node 22 1 1 1
node 23 1 1 1
node 24 1 1 1
node 25 1 1 1
node 26 1 1 1
node 27 1 1 1
node 28 1 1 1
node 29 1 1 1
node 30 1 1 1
node 31 1 1 1
node 32 1 1 1
node 33 1 1 1
node 34 1 1 1
node 35 1 1 1
node 36 1 1 1
node 37 1 1 1
node 38 1 1 1
node 39 1 1 1
node 40 1 1 1
node 41 1 1 3
node 42 1 0 2
node 43 1 0 2
node 44 1 0 2
node 45 1 0 2
node 46 1 0 2
node 47 1 0 2
node 48 1 0 2
node 49 1 0 2
gene 1 1 42 -0.975489 0 1 -0.975489 1
gene 1 1 43 -1.85711 0 2 -1.85711 1
gene 1 1 44 -2.81552 0 3 -2.81552 1
gene 1 1 45 0.645924 0 4 0.645924 1
gene 1 1 46 0.888246 0 5 0.888246 1
gene 1 1 47 -0.38278 0 6 -0.38278 1
gene 1 1 48 0.625106 0 7 0.625106 1
gene 1 1 49 -0.404865 0 8 -0.404865 1
gene 1 2 42 0.658694 0 9 0.658694 1
gene 1 2 43 0.880803 0 10 0.880803 1
gene 1 2 44 0.287608 0 11 0.287608 1
gene 1 2 45 -1.34551 0 12 -1.34551 1
gene 1 2 46 0.396635 0 13 0.396635 1
gene 1 2 47 -0.979151 0 14 -0.979151 1
gene 1 2 48 0.679184 0 15 0.679184 1
gene 1 2 49 0.32369 0 16 0.32369 1
gene 1 3 42 -0.810607 0 17 -0.810607 1
gene 1 3 43 0.505645 0 18 0.505645 1
gene 1 3 44 0.0510777 0 19 0.0510777 1
gene 1 3 45 0.218493 0 20 0.218493 1
gene 1 3 46 -1.08724 0 21 -1.08724 1
gene 1 3 47 -2.10115 0 22 -2.10115 1
gene 1 3 48 0.876999 0 23 0.876999 1
gene 1 3 49 -4.43128 0 24 -4.43128 1
gene 1 4 42 -0.0630341 0 25 -0.0630341 1
gene 1 4 43 2.81842 0 26 2.81842 1
gene 1 4 44 0.241313 0 27 0.241313 1
gene 1 4 45 -1.35414 0 28 -1.35414 1
gene 1 4 46 0.443726 0 29 0.443726 1
gene 1 4 47 1.51991 0 30 1.51991 1
gene 1 4 48 -0.509135 0 31 -0.509135 1
gene 1 4 49 -0.740944 0 32 -0.740944 1
gene 1 5 42 -0.928039 0 33 -0.928039 1
gene 1 5 43 0.504374 0 34 0.504374 1
gene 1 5 44 -0.798668 0 35 -0.798668 1
gene 1 5 45 -0.442415 0 36 -0.442415 1
gene 1 5 46 -0.0766947 0 37 -0.0766947 1
gene 1 5 47 1.45564 0 38 1.45564 1
gene 1 5 48 -1.64467 0 39 -1.64467 1
gene 1 5 49 -1.15593 0 40 -1.15593 1
gene 1 6 42 -1.4135 0 41 -1.4135 1
gene 1 6 43 -2.88541 0 42 -2.88541 1
gene 1 6 44 1.90984 0 43 1.90984 1
gene 1 6 45 -0.725999 0 44 -0.725999 1
gene 1 6 46 2.30653 0 45 2.30653 1
gene 1 6 47 -0.180144 0 46 -0.180144 1
gene 1 6 48 0.941729 0 47 0.941729 1
gene 1 6 49 0.936806 0 48 0.936806 1
gene 1 7 42 0.42487 0 49 0.42487 1
gene 1 7 43 1.70151 0 50 1.70151 1
gene 1 7 44 -0.0705623 0 51 -0.0705623 1
gene 1 7 45 -0.535645 0 52 -0.535645 1
gene 1 7 46 3.7697 0 53 3.7697 1
gene 1 7 47 -0.433018 0 54 -0.433018 1
gene 1 7 48 -3.15805 0 55 -3.15805 1
gene 1 7 49 -1.62341 0 56 -1.62341 1
gene 1 8 42 0.402811 0 57 0.402811 1
gene 1 8 43 0.761764 0 58 0.761764 1
gene 1 8 44 -0.836849 0 59 -0.836849 1
gene 1 8 45 -0.888293 0 60 -0.888293 1
gene 1 8 46 -4.23835 0 61 -4.23835 1
gene 1 8 47 1.15197 0 62 1.15197 1
gene 1 8 48 -0.453041 0 63 -0.453041 1
gene 1 8 49 -0.26963 0 64 -0.26963 1
gene 1 9 42 0.685053 0 65 0.685053 1
gene 1 9 43 -0.46352 0 66 -0.46352 1
gene 1 9 44 -4.1365 0 67 -4.1365 1
gene 1 9 45 0.353429 0 68 0.353429 1
gene 1 9 46 0.704223 0 69 0.704223 1
gene 1 9 47 0.03438 0 70 0.03438 1
gene 1 9 48 -0.0929035 0 71 -0.0929035 1
gene 1 9 49 -0.889276 0 72 -0.889276 1
gene 1 10 42 0.655337 0 73 0.655337 1
gene 1 10 43 -2.92226 0 74 -2.92226 1
gene 1 10 44 -5 0 75 -5 1
gene 1 10 45 -0.756714 0 76 -0.756714 1
gene 1 10 46 0.750741 0 77 0.750741 1
gene 1 10 47 -0.0128574 0 78 -0.0128574 1
gene 1 10 48 -2.45487 0 79 -2.45487 1
gene 1 10 49 2.47955 0 80 2.47955 1
gene 1 11 42 -3.67361 0 81 -3.67361 1
gene 1 11 43 -1.45299 0 82 -1.45299 1
gene 1 11 44 -4.55304 0 83 -4.55304 1
gene 1 11 45 -3.41719 0 84 -3.41719 1
gene 1 11 46 -0.922117 0 85 -0.922117 1
gene 1 11 47 0.73876 0 86 0.73876 1
gene 1 11 48 -0.31487 0 87 -0.31487 1
gene 1 11 49 0.959629 0 88 0.959629 1
gene 1 12 42 -0.781071 0 89 -0.781071 1
gene 1 12 43 -0.0446073 0 90 -0.0446073 1
gene 1 12 44 -0.284758 0 91 -0.284758 1
gene 1 12 45 0.82019 0 92 0.82019 1
gene 1 12 46 2.47427 0 93 2.47427 1
gene 1 12 47 1.20782 0 94 1.20782 1
gene 1 12 48 -1.54894 0 95 -1.54894 1
gene 1 12 49 -0.324819 0 96 -0.324819 1
gene 1 13 42 0.711588 0 97 0.711588 1
gene 1 13 43 0.0172252 0 98 0.0172252 1
gene 1 13 44 2.03902 0 99 2.03902 1
gene 1 13 45 1.2438 0 100 1.2438 1
gene 1 13 46 -0.747012 0 101 -0.747012 1
gene 1 13 47 -1.83212 0 102 -1.83212 1
gene 1 13 48 -2.30146 0 103 -2.30146 1
gene 1 13 49 -0.411938 0 104 -0.411938 1
gene 1 14 42 2.43158 0 105 2.43158 1
gene 1 14 43 0.370915 0 106 0.370915 1
gene 1 14 44 1.32609 0 107 1.32609 1
gene 1 14 45 -1.7146 0 108 -1.7146 1
gene 1 14 46 -2.57625 0 109 -2.57625 1
gene 1 14 47 2.21396 0 110 2.21396 1
gene 1 14 48 0.83993 0 111 0.83993 1
gene 1 14 49 0.148506 0 112 0.148506 1
gene 1 15 42 -1.23273 0 113 -1.23273 1
gene 1 15 43 0.105205 0 114 0.105205 1
gene 1 15 44 0.561027 0 115 0.561027 1
gene 1 15 45 -0.127646 0 116 -0.127646 1
gene 1 15 46 -1.92499 0 117 -1.92499 1
gene 1 15 47 0.913045 0 118 0.913045 1
gene 1 15 48 -2.52913 0 119 -2.52913 1
gene 1 15 49 -1.19947 0 120 -1.19947 1
gene 1 16 42 -0.996046 0 121 -0.996046 1
gene 1 16 43 -1.59222 0 122 -1.59222 1
gene 1 16 44 -0.418813 0 123 -0.418813 1
gene 1 16 45 -0.149761 0 124 -0.149761 1
gene 1 16 46 0.218522 0 125 0.218522 1
gene 1 16 47 -1.16898 0 126 -1.16898 1
gene 1 16 48 -0.783901 0 127 -0.783901 1
gene 1 16 49 1.26839 0 128 1.26839 1
gene 1 17 42 -1.38458 0 129 -1.38458 1
gene 1 17 43 -4.2452 0 130 -4.2452 1
gene 1 17 44 -0.292171 0 131 -0.292171 1
gene 1 17 45 -1.88796 0 132 -1.88796 1
gene 1 17 46 0.737941 0 133 0.737941 1
gene 1 17 47 1.79071 0 134 1.79071 1
gene 1 17 48 1.84257 0 135 1.84257 1
gene 1 17 49 1.6991 0 136 1.6991 1
gene 1 18 42 -0.159237 0 137 -0.159237 1
gene 1 18 43 1.78694 0 138 1.78694 1
gene 1 18 44 2.24607 0 139 2.24607 1
gene 1 18 45 0.548427 0 140 0.548427 1
gene 1 18 46 -0.993804 0 141 -0.993804 1
gene 1 18 47 -0.204931 0 142 -0.204931 1
gene 1 18 48 1.4252 0 143 1.4252 1
gene 1 18 49 -0.549619 0 144 -0.549619 1
gene 1 19 42 1.54314 0 145 1.54314 1
gene 1 19 43 0.224979 0 146 0.224979 1
gene 1 19 44 1.66564 0 147 1.66564 1
gene 1 19 45 0.354397 0 148 0.354397 1
gene 1 19 46 0.610415 0 149 0.610415 1
gene 1 19 47 0.975953 0 150 0.975953 1
gene 1 19 48 -2.80343 0 151 -2.80343 1
gene 1 19 49 5 0 152 5 1
gene 1 20 42 0.380034 0 153 0.380034 1
gene 1 20 43 5 0 154 5 1
gene 1 20 44 -1.67904 0 155 -1.67904 1
gene 1 20 45 -0.880874 0 156 -0.880874 1
gene 1 20 46 0.442984 0 157 0.442984 1
gene 1 20 47 -1.0131 0 158 -1.0131 1
gene 1 20 48 0.00175419 0 159 0.00175419 1
gene 1 20 49 1.06734 0 160 1.06734 1
gene 1 21 42 -2.00671 0 161 -2.00671 1
gene 1 21 43 -2.8282 0 162 -2.8282 1
gene 1 21 44 0.48961 0 163 0.48961 1
gene 1 21 45 1.40138 0 164 1.40138 1
gene 1 21 46 0.760313 0 165 0.760313 1
gene 1 21 47 -0.886029 0 166 -0.886029 1
gene 1 21 48 3.43075 0 167 3.43075 1
gene 1 21 49 -1.53092 0 168 -1.53092 1
gene 1 22 42 -0.108997 0 169 -0.108997 1
gene 1 22 43 0.895328 0 170 0.895328 1
gene 1 22 44 -0.573385 0 171 -0.573385 1
gene 1 22 45 -0.228426 0 172 -0.228426 1
gene 1 22 46 -0.506867 0 173 -0.506867 1
gene 1 22 47 0.708763 0 174 0.708763 1
gene 1 22 48 0.456345 0 175 0.456345 1
gene 1 22 49 -0.487121 0 176 -0.487121 1
gene 1 23 42 2.52999 0 177 2.52999 1
gene 1 23 43 -0.409004 0 178 -0.409004 1
gene 1 23 44 -0.808801 0 179 -0.808801 1
gene 1 23 45 0.166473 0 180 0.166473 1
gene 1 23 46 -0.274708 0 181 -0.274708 1
gene 1 23 47 0.690017 0 182 0.690017 1
gene 1 23 48 -2.06295 0 183 -2.06295 1
gene 1 23 49 0.89069 0 184 0.89069 1
gene 1 24 42 0.0182136 0 185 0.0182136 1
gene 1 24 43 0.0847856 0 186 0.0847856 1
gene 1 24 44 -4.0354 0 187 -4.0354 1
gene 1 24 45 0.793735 0 188 0.793735 1
gene 1 24 46 -0.90487 0 189 -0.90487 1
gene 1 24 47 3.1477 0 190 3.1477 1
gene 1 24 48 -0.216253 0 191 -0.216253 1
gene 1 24 49 -0.371732 0 192 -0.371732 1
gene 1 25 42 0.679639 0 193 0.679639 1
gene 1 25 43 -3.73353 0 194 -3.73353 1
gene 1 25 44 -0.0985343 0 195 -0.0985343 1
gene 1 25 45 0.132217 0 196 0.132217 1
gene 1 25 46 0.812026 0 197 0.812026 1
gene 1 25 47 1.77142 0 198 1.77142 1
gene 1 25 48 1.9847 0 199 1.9847 1
gene 1 25 49 2.62809 0 200 2.62809 1
gene 1 26 42 -0.856706 0 201 -0.856706 1
gene 1 26 43 1.25059 0 202 1.25059 1
gene 1 26 44 -0.848255 0 203 -0.848255 1
gene 1 26 45 0.964024 0 204 0.964024 1
gene 1 26 46 5 0 205 5 1
gene 1 26 47 -1.19229 0 206 -1.19229 1
gene 1 26 48 0.703815 0 207 0.703815 1
gene 1 26 49 -2.08214 0 208 -2.08214 1
gene 1 27 42 -3.93499 0 209 -3.93499 1
gene 1 27 43 -0.988917 0 210 -0.988917 1
gene 1 27 44 -1.003 0 211 -1.003 1
gene 1 27 45 0.0308409 0 212 0.0308409 1
gene 1 27 46 -1.33434 0 213 -1.33434 1
gene 1 27 47 -0.631069 0 214 -0.631069 1
gene 1 27 48 -0.805386 0 215 -0.805386 1
gene 1 27 49 -0.564566 0 216 -0.564566 1
gene 1 28 42 1.26249 0 217 1.26249 1
gene 1 28 43 -0.532851 0 218 -0.532851 1
gene 1 28 44 0.79892 0 219 0.79892 1
gene 1 28 45 -4.30523 0 220 -4.30523 1
gene 1 28 46 -1.53021 0 221 -1.53021 1
gene 1 28 47 0.510671 0 222 0.510671 1
gene 1 28 48 0.166628 0 223 0.166628 1
gene 1 28 49 -0.168797 0 224 -0.168797 1
gene 1 29 42 -0.0102347 0 225 -0.0102347 1
gene 1 29 43 2.84639 0 226 2.84639 1
gene 1 29 44 -2.24538 0 227 -2.24538 1
gene 1 29 45 1.50602 0 228 1.50602 1
gene 1 29 46 -0.169813 0 229 -0.169813 1
gene 1 29 47 1.98541 0 230 1.98541 1
gene 1 29 48 0.170602 0 231 0.170602 1
gene 1 29 49 -0.415147 0 232 -0.415147 1
gene 1 30 42 -3.03712 0 233 -3.03712 1
gene 1 30 43 -0.102215 0 234 -0.102215 1
gene 1 30 44 2.21786 0 235 2.21786 1
gene 1 30 45 -1.71685 0 236 -1.71685 1
gene 1 30 46 -1.10551 0 237 -1.10551 1
gene 1 30 47 -4.28636 0 238 -4.28636 1
gene 1 30 48 -0.739711 0 239 -0.739711 1
gene 1 30 49 0.0771074 0 240 0.0771074 1
gene 1 31 42 -0.475107 0 241 -0.475107 1
gene 1 31 43 -2.9286 0 242 -2.9286 1
gene 1 31 44 0.943206 0 243 0.943206 1
gene 1 31 45 -0.109326 0 244 -0.109326 1
gene 1 31 46 -2.75634 0 245 -2.75634 1
gene 1 31 47 -2.12673 0 246 -2.12673 1
gene 1 31 48 0.900835 0 247 0.900835 1
gene 1 31 49 -2.63581 0 248 -2.63581 1
gene 1 32 42 1.27885 0 249 1.27885 1
gene 1 32 43 0.731265 0 250 0.731265 1
gene 1 32 44 0.773205 0 251 0.773205 1
gene 1 32 45 0.458088 0 252 0.458088 1
gene 1 32 46 0.572296 0 253 0.572296 1
gene 1 32 47 0.449724 0 254 0.449724 1
gene 1 32 48 -0.296849 0 255 -0.296849 1
gene 1 32 49 -2.79176 0 256 -2.79176 1
gene 1 33 42 1.29174 0 257 1.29174 1
gene 1 33 43 3.56273 0 258 3.56273 1
gene 1 33 44 -0.420011 0 259 -0.420011 1
gene 1 33 45 0.892217 0 260 0.892217 1
gene 1 33 46 -1.72012 0 261 -1.72012 1
gene 1 33 47 1.51566 0 262 1.51566 1
gene 1 33 48 0.219748 0 263 0.219748 1
gene 1 33 49 -1.42682 0 264 -1.42682 1
gene 1 34 42 -0.568588 0 265 -0.568588 1
gene 1 34 43 0.138183 0 266 0.138183 1
gene 1 34 44 0.871561 0 267 0.871561 1
gene 1 34 45 -1.14324 0 268 -1.14324 1
gene 1 34 46 1.25887 0 269 1.25887 1
gene 1 34 47 -0.625896 0 270 -0.625896 1
gene 1 34 48 0.498131 0 271 0.498131 1
gene 1 34 49 -0.44686 0 272 -0.44686 1
gene 1 35 42 -1.95793 0 273 -1.95793 1
gene 1 35 43 -3.30787 0 274 -3.30787 1
gene 1 35 44 0.664955 0 275 0.664955 1
gene 1 35 45 0.874731 0 276 0.874731 1
gene 1 35 46 -0.0125825 0 277 -0.0125825 1
gene 1 35 47 -0.223099 0 278 -0.223099 1
gene 1 35 48 0.982094 0 279 0.982094 1
gene 1 35 49 -0.115922 0 280 -0.115922 1
gene 1 36 42 1.62815 0 281 1.62815 1
gene 1 36 43 -1.22085 0 282 -1.22085 1
gene 1 36 44 -0.335639 0 283 -0.335639 1
gene 1 36 45 0.573426 0 284 0.573426 1
gene 1 36 46 -0.935355 0 285 -0.935355 1
gene 1 36 47 1.19016 0 286 1.19016 1
gene 1 36 48 1.21582 0 287 1.21582 1
gene 1 36 49 -0.732291 0 288 -0.732291 1
gene 1 37 42 -0.756765 0 289 -0.756765 1
gene 1 37 43 0.270401 0 290 0.270401 1
gene 1 37 44 0.959762 0 291 0.959762 1
gene 1 37 45 1.74629 0 292 1.74629 1
gene 1 37 46 -0.0404206 0 293 -0.0404206 1
gene 1 37 47 -0.0955568 0 294 -0.0955568 1
gene 1 37 48 -0.00454851 0 295 -0.00454851 1
gene 1 37 49 1.15189 0 296 1.15189 1
gene 1 38 42 1.03353 0 297 1.03353 1
gene 1 38 43 0.282976 0 298 0.282976 1
gene 1 38 44 -1.46489 0 299 -1.46489 1
gene 1 38 45 1.09311 0 300 1.09311 1
gene 1 38 46 1.53453 0 301 1.53453 1
gene 1 38 47 -0.351746 0 302 -0.351746 1
gene 1 38 48 0.72679 0 303 0.72679 1
gene 1 38 49 0.482361 0 304 0.482361 1
gene 1 39 42 0.0471616 0 305 0.0471616 1
gene 1 39 43 -0.099478 0 306 -0.099478 1
gene 1 39 44 -1.92703 0 307 -1.92703 1
gene 1 39 45 -0.708097 0 308 -0.708097 1
gene 1 39 46 -0.565744 0 309 -0.565744 1
gene 1 39 47 -0.251128 0 310 -0.251128 1
gene 1 39 48 0.524517 0 311 0.524517 1
gene 1 39 49 -0.800747 0 312 -0.800747 1
gene 1 40 42 1.1954 0 313 1.1954 1
gene 1 40 43 -0.231566 0 314 -0.231566 1
gene 1 40 44 0.474961 0 315 0.474961 1
gene 1 40 45 1.11668 0 316 1.11668 1
gene 1 40 46 -0.22748 0 317 -0.22748 1
gene 1 40 47 -0.190063 0 318 -0.190063 1
gene 1 40 48 0.188897 0 319 0.188897 1
gene 1 40 49 -0.56342 0 320 -0.56342 1
gene 1 41 42 -3.06025 0 321 -3.06025 1
gene 1 41 43 -0.661259 0 322 -0.661259 1
gene 1 41 44 -0.929949 0 323 -0.929949 1
gene 1 41 45 -0.92007 0 324 -0.92007 1
gene 1 41 46 -0.53956 0 325 -0.53956 1
gene 1 41 47 -0.710548 0 326 -0.710548 1
gene 1 41 48 1.21436 0 327 1.21436 1
gene 1 41 49 -0.459453 0 328 -0.459453 1
genomeend 0

