genomestart 1
trait 1 0.1 0 0 0 0 0 0 0
node 1 0 1 1
node 2 0 1 1
node 3 0 1 1
node 4 0 1 1
node 5 0 1 1
node 6 0 1 1
node 7 0 1 1
node 8 0 1 1
node 9 0 1 1
node 10 0 1 1
node 11 0 1 1
node 12 0 1 1
node 13 0 1 1
node 14 0 1 1
node 15 0 1 1
node 16 0 1 1
node 17 0 1 1
node 18 0 1 1
node 19 0 1 1
node 20 0 1 1
node 21 0 1 1
node 22 0 1 1
node 23 0 1 1
node 24 0 1 1
node 25 0 1 1
node 26 0 1 1
node 27 0 1 1
node 28 0 1 1
node 29 0 1 1
node 30 0 1 1
node 31 0 1 1
node 32 0 1 1
node 33 0 1 1
node 34 0 1 1
node 35 0 1 1
node 36 0 1 1
node 37 0 1 1
node 38 0 1 1
node 39 0 1 1
node 40 0 1 1
node 41 0 1 1
node 42 0 1 1
node 43 0 1 1
node 44 0 1 1
node 45 0 1 1
node 46 0 1 1
node 47 0 1 1
node 48 0 1 1
node 49 0 1 1
node 50 0 1 1
node 51 0 1 1
node 52 0 1 1
node 53 0 1 1
node 54 0 1 1
node 55 0 1 1
node 56 0 1 1
node 57 0 1 1
node 58 0 1 1
node 59 0 1 1
node 60 0 1 1
node 61 0 1 3
node 62 0 0 2
node 63 0 0 2
node 64 0 0 2
node 65 0 0 2
node 66 0 0 2
node 67 0 0 2
node 68 0 0 2
gene  1 1 62 0.0 0 1 0 1
gene  1 1 63 0.0 0 2 0 1
gene  1 1 64 0.0 0 3 0 1
gene  1 1 65 0.0 0 4 0 1
gene  1 1 66 0.0 0 5 0 1
gene  1 1 67 0.0 0 6 0 1
gene  1 1 68 0.0 0 7 0 1
gene  1 2 62 0.0 0 8 0 1
gene  1 2 63 0.0 0 9 0 1
gene  1 2 64 0.0 0 10 0 1
gene  1 2 65 0.0 0 11 0 1
gene  1 2 66 0.0 0 12 0 1
gene  1 2 67 0.0 0 13 0 1
gene  1 2 68 0.0 0 14 0 1
gene  1 3 62 0.0 0 15 0 1
gene  1 3 63 0.0 0 16 0 1
gene  1 3 64 0.0 0 17 0 1
gene  1 3 65 0.0 0 18 0 1
gene  1 3 66 0.0 0 19 0 1
gene  1 3 67 0.0 0 20 0 1
gene  1 3 68 0.0 0 21 0 1
gene  1 4 62 0.0 0 22 0 1
gene  1 4 63 0.0 0 23 0 1
gene  1 4 64 0.0 0 24 0 1
gene  1 4 65 0.0 0 25 0 1
gene  1 4 66 0.0 0 26 0 1
gene  1 4 67 0.0 0 27 0 1
gene  1 4 68 0.0 0 28 0 1
gene  1 5 62 0.0 0 29 0 1
gene  1 5 63 0.0 0 30 0 1
gene  1 5 64 0.0 0 31 0 1
gene  1 5 65 0.0 0 32 0 1
gene  1 5 66 0.0 0 33 0 1
gene  1 5 67 0.0 0 34 0 1
gene  1 5 68 0.0 0 35 0 1
gene  1 6 62 0.0 0 36 0 1
gene  1 6 63 0.0 0 37 0 1
gene  1 6 64 0.0 0 38 0 1
gene  1 6 65 0.0 0 39 0 1
gene  1 6 66 0.0 0 40 0 1
gene  1 6 67 0.0 0 41 0 1
gene  1 6 68 0.0 0 42 0 1
gene  1 7 62 0.0 0 43 0 1
gene  1 7 63 0.0 0 44 0 1
gene  1 7 64 0.0 0 45 0 1
gene  1 7 65 0.0 0 46 0 1
gene  1 7 66 0.0 0 47 0 1
gene  1 7 67 0.0 0 48 0 1
gene  1 7 68 0.0 0 49 0 1
gene  1 8 62 0.0 0 50 0 1
gene  1 8 63 0.0 0 51 0 1
gene  1 8 64 0.0 0 52 0 1
gene  1 8 65 0.0 0 53 0 1
gene  1 8 66 0.0 0 54 0 1
gene  1 8 67 0.0 0 55 0 1
gene  1 8 68 0.0 0 56 0 1
gene  1 9 62 0.0 0 57 0 1
gene  1 9 63 0.0 0 58 0 1
gene  1 9 64 0.0 0 59 0 1
gene  1 9 65 0.0 0 60 0 1
gene  1 9 66 0.0 0 61 0 1
gene  1 9 67 0.0 0 62 0 1
gene  1 9 68 0.0 0 63 0 1
gene  1 10 62 0.0 0 64 0 1
gene  1 10 63 0.0 0 65 0 1
gene  1 10 64 0.0 0 66 0 1
gene  1 10 65 0.0 0 67 0 1
gene  1 10 66 0.0 0 68 0 1
gene  1 10 67 0.0 0 69 0 1
gene  1 10 68 0.0 0 70 0 1
gene  1 11 62 0.0 0 71 0 1
gene  1 11 63 0.0 0 72 0 1
gene  1 11 64 0.0 0 73 0 1
gene  1 11 65 0.0 0 74 0 1
gene  1 11 66 0.0 0 75 0 1
gene  1 11 67 0.0 0 76 0 1
gene  1 11 68 0.0 0 77 0 1
gene  1 12 62 0.0 0 78 0 1
gene  1 12 63 0.0 0 79 0 1
gene  1 12 64 0.0 0 80 0 1
gene  1 12 65 0.0 0 81 0 1
gene  1 12 66 0.0 0 82 0 1
gene  1 12 67 0.0 0 83 0 1
gene  1 12 68 0.0 0 84 0 1
gene  1 13 62 0.0 0 85 0 1
gene  1 13 63 0.0 0 86 0 1
gene  1 13 64 0.0 0 87 0 1
gene  1 13 65 0.0 0 88 0 1
gene  1 13 66 0.0 0 89 0 1
gene  1 13 67 0.0 0 90 0 1
gene  1 13 68 0.0 0 91 0 1
gene  1 14 62 0.0 0 92 0 1
gene  1 14 63 0.0 0 93 0 1
gene  1 14 64 0.0 0 94 0 1
gene  1 14 65 0.0 0 95 0 1
gene  1 14 66 0.0 0 96 0 1
gene  1 14 67 0.0 0 97 0 1
gene  1 14 68 0.0 0 98 0 1
gene  1 15 62 0.0 0 99 0 1
gene  1 15 63 0.0 0 100 0 1
gene  1 15 64 0.0 0 101 0 1
gene  1 15 65 0.0 0 102 0 1
gene  1 15 66 0.0 0 103 0 1
gene  1 15 67 0.0 0 104 0 1
gene  1 15 68 0.0 0 105 0 1
gene  1 16 62 0.0 0 106 0 1
gene  1 16 63 0.0 0 107 0 1
gene  1 16 64 0.0 0 108 0 1
gene  1 16 65 0.0 0 109 0 1
gene  1 16 66 0.0 0 110 0 1
gene  1 16 67 0.0 0 111 0 1
gene  1 16 68 0.0 0 112 0 1
gene  1 17 62 0.0 0 113 0 1
gene  1 17 63 0.0 0 114 0 1
gene  1 17 64 0.0 0 115 0 1
gene  1 17 65 0.0 0 116 0 1
gene  1 17 66 0.0 0 117 0 1
gene  1 17 67 0.0 0 118 0 1
gene  1 17 68 0.0 0 119 0 1
gene  1 18 62 0.0 0 120 0 1
gene  1 18 63 0.0 0 121 0 1
gene  1 18 64 0.0 0 122 0 1
gene  1 18 65 0.0 0 123 0 1
gene  1 18 66 0.0 0 124 0 1
gene  1 18 67 0.0 0 125 0 1
gene  1 18 68 0.0 0 126 0 1
gene  1 19 62 0.0 0 127 0 1
gene  1 19 63 0.0 0 128 0 1
gene  1 19 64 0.0 0 129 0 1
gene  1 19 65 0.0 0 130 0 1
gene  1 19 66 0.0 0 131 0 1
gene  1 19 67 0.0 0 132 0 1
gene  1 19 68 0.0 0 133 0 1
gene  1 20 62 0.0 0 134 0 1
gene  1 20 63 0.0 0 135 0 1
gene  1 20 64 0.0 0 136 0 1
gene  1 20 65 0.0 0 137 0 1
gene  1 20 66 0.0 0 138 0 1
gene  1 20 67 0.0 0 139 0 1
gene  1 20 68 0.0 0 140 0 1
gene  1 21 62 0.0 0 141 0 1
gene  1 21 63 0.0 0 142 0 1
gene  1 21 64 0.0 0 143 0 1
gene  1 21 65 0.0 0 144 0 1
gene  1 21 66 0.0 0 145 0 1
gene  1 21 67 0.0 0 146 0 1
gene  1 21 68 0.0 0 147 0 1
gene  1 22 62 0.0 0 148 0 1
gene  1 22 63 0.0 0 149 0 1
gene  1 22 64 0.0 0 150 0 1
gene  1 22 65 0.0 0 151 0 1
gene  1 22 66 0.0 0 152 0 1
gene  1 22 67 0.0 0 153 0 1
gene  1 22 68 0.0 0 154 0 1
gene  1 23 62 0.0 0 155 0 1
gene  1 23 63 0.0 0 156 0 1
gene  1 23 64 0.0 0 157 0 1
gene  1 23 65 0.0 0 158 0 1
gene  1 23 66 0.0 0 159 0 1
gene  1 23 67 0.0 0 160 0 1
gene  1 23 68 0.0 0 161 0 1
gene  1 24 62 0.0 0 162 0 1
gene  1 24 63 0.0 0 163 0 1
gene  1 24 64 0.0 0 164 0 1
gene  1 24 65 0.0 0 165 0 1
gene  1 24 66 0.0 0 166 0 1
gene  1 24 67 0.0 0 167 0 1
gene  1 24 68 0.0 0 168 0 1
gene  1 25 62 0.0 0 169 0 1
gene  1 25 63 0.0 0 170 0 1
gene  1 25 64 0.0 0 171 0 1
gene  1 25 65 0.0 0 172 0 1
gene  1 25 66 0.0 0 173 0 1
gene  1 25 67 0.0 0 174 0 1
gene  1 25 68 0.0 0 175 0 1
gene  1 26 62 0.0 0 176 0 1
gene  1 26 63 0.0 0 177 0 1
gene  1 26 64 0.0 0 178 0 1
gene  1 26 65 0.0 0 179 0 1
gene  1 26 66 0.0 0 180 0 1
gene  1 26 67 0.0 0 181 0 1
gene  1 26 68 0.0 0 182 0 1
gene  1 27 62 0.0 0 183 0 1
gene  1 27 63 0.0 0 184 0 1
gene  1 27 64 0.0 0 185 0 1
gene  1 27 65 0.0 0 186 0 1
gene  1 27 66 0.0 0 187 0 1
gene  1 27 67 0.0 0 188 0 1
gene  1 27 68 0.0 0 189 0 1
gene  1 28 62 0.0 0 190 0 1
gene  1 28 63 0.0 0 191 0 1
gene  1 28 64 0.0 0 192 0 1
gene  1 28 65 0.0 0 193 0 1
gene  1 28 66 0.0 0 194 0 1
gene  1 28 67 0.0 0 195 0 1
gene  1 28 68 0.0 0 196 0 1
gene  1 29 62 0.0 0 197 0 1
gene  1 29 63 0.0 0 198 0 1
gene  1 29 64 0.0 0 199 0 1
gene  1 29 65 0.0 0 200 0 1
gene  1 29 66 0.0 0 201 0 1
gene  1 29 67 0.0 0 202 0 1
gene  1 29 68 0.0 0 203 0 1
gene  1 30 62 0.0 0 204 0 1
gene  1 30 63 0.0 0 205 0 1
gene  1 30 64 0.0 0 206 0 1
gene  1 30 65 0.0 0 207 0 1
gene  1 30 66 0.0 0 208 0 1
gene  1 30 67 0.0 0 209 0 1
gene  1 30 68 0.0 0 210 0 1
gene  1 31 62 0.0 0 211 0 1
gene  1 31 63 0.0 0 212 0 1
gene  1 31 64 0.0 0 213 0 1
gene  1 31 65 0.0 0 214 0 1
gene  1 31 66 0.0 0 215 0 1
gene  1 31 67 0.0 0 216 0 1
gene  1 31 68 0.0 0 217 0 1
gene  1 32 62 0.0 0 218 0 1
gene  1 32 63 0.0 0 219 0 1
gene  1 32 64 0.0 0 220 0 1
gene  1 32 65 0.0 0 221 0 1
gene  1 32 66 0.0 0 222 0 1
gene  1 32 67 0.0 0 223 0 1
gene  1 32 68 0.0 0 224 0 1
gene  1 33 62 0.0 0 225 0 1
gene  1 33 63 0.0 0 226 0 1
gene  1 33 64 0.0 0 227 0 1
gene  1 33 65 0.0 0 228 0 1
gene  1 33 66 0.0 0 229 0 1
gene  1 33 67 0.0 0 230 0 1
gene  1 33 68 0.0 0 231 0 1
gene  1 34 62 0.0 0 232 0 1
gene  1 34 63 0.0 0 233 0 1
gene  1 34 64 0.0 0 234 0 1
gene  1 34 65 0.0 0 235 0 1
gene  1 34 66 0.0 0 236 0 1
gene  1 34 67 0.0 0 237 0 1
gene  1 34 68 0.0 0 238 0 1
gene  1 35 62 0.0 0 239 0 1
gene  1 35 63 0.0 0 240 0 1
gene  1 35 64 0.0 0 241 0 1
gene  1 35 65 0.0 0 242 0 1
gene  1 35 66 0.0 0 243 0 1
gene  1 35 67 0.0 0 244 0 1
gene  1 35 68 0.0 0 245 0 1
gene  1 36 62 0.0 0 246 0 1
gene  1 36 63 0.0 0 247 0 1
gene  1 36 64 0.0 0 248 0 1
gene  1 36 65 0.0 0 249 0 1
gene  1 36 66 0.0 0 250 0 1
gene  1 36 67 0.0 0 251 0 1
gene  1 36 68 0.0 0 252 0 1
gene  1 37 62 0.0 0 253 0 1
gene  1 37 63 0.0 0 254 0 1
gene  1 37 64 0.0 0 255 0 1
gene  1 37 65 0.0 0 256 0 1
gene  1 37 66 0.0 0 257 0 1
gene  1 37 67 0.0 0 258 0 1
gene  1 37 68 0.0 0 259 0 1
gene  1 38 62 0.0 0 260 0 1
gene  1 38 63 0.0 0 261 0 1
gene  1 38 64 0.0 0 262 0 1
gene  1 38 65 0.0 0 263 0 1
gene  1 38 66 0.0 0 264 0 1
gene  1 38 67 0.0 0 265 0 1
gene  1 38 68 0.0 0 266 0 1
gene  1 39 62 0.0 0 267 0 1
gene  1 39 63 0.0 0 268 0 1
gene  1 39 64 0.0 0 269 0 1
gene  1 39 65 0.0 0 270 0 1
gene  1 39 66 0.0 0 271 0 1
gene  1 39 67 0.0 0 272 0 1
gene  1 39 68 0.0 0 273 0 1
gene  1 40 62 0.0 0 274 0 1
gene  1 40 63 0.0 0 275 0 1
gene  1 40 64 0.0 0 276 0 1
gene  1 40 65 0.0 0 277 0 1
gene  1 40 66 0.0 0 278 0 1
gene  1 40 67 0.0 0 279 0 1
gene  1 40 68 0.0 0 280 0 1
gene  1 41 62 0.0 0 281 0 1
gene  1 41 63 0.0 0 282 0 1
gene  1 41 64 0.0 0 283 0 1
gene  1 41 65 0.0 0 284 0 1
gene  1 41 66 0.0 0 285 0 1
gene  1 41 67 0.0 0 286 0 1
gene  1 41 68 0.0 0 287 0 1
gene  1 42 62 0.0 0 288 0 1
gene  1 42 63 0.0 0 289 0 1
gene  1 42 64 0.0 0 290 0 1
gene  1 42 65 0.0 0 291 0 1
gene  1 42 66 0.0 0 292 0 1
gene  1 42 67 0.0 0 293 0 1
gene  1 42 68 0.0 0 294 0 1
gene  1 43 62 0.0 0 295 0 1
gene  1 43 63 0.0 0 296 0 1
gene  1 43 64 0.0 0 297 0 1
gene  1 43 65 0.0 0 298 0 1
gene  1 43 66 0.0 0 299 0 1
gene  1 43 67 0.0 0 300 0 1
gene  1 43 68 0.0 0 301 0 1
gene  1 44 62 0.0 0 302 0 1
gene  1 44 63 0.0 0 303 0 1
gene  1 44 64 0.0 0 304 0 1
gene  1 44 65 0.0 0 305 0 1
gene  1 44 66 0.0 0 306 0 1
gene  1 44 67 0.0 0 307 0 1
gene  1 44 68 0.0 0 308 0 1
gene  1 45 62 0.0 0 309 0 1
gene  1 45 63 0.0 0 310 0 1
gene  1 45 64 0.0 0 311 0 1
gene  1 45 65 0.0 0 312 0 1
gene  1 45 66 0.0 0 313 0 1
gene  1 45 67 0.0 0 314 0 1
gene  1 45 68 0.0 0 314 0 1
gene  1 46 62 0.0 0 316 0 1
gene  1 46 63 0.0 0 317 0 1
gene  1 46 64 0.0 0 318 0 1
gene  1 46 65 0.0 0 319 0 1
gene  1 46 66 0.0 0 320 0 1
gene  1 46 67 0.0 0 321 0 1
gene  1 46 68 0.0 0 322 0 1
gene  1 47 62 0.0 0 323 0 1
gene  1 47 63 0.0 0 324 0 1
gene  1 47 64 0.0 0 325 0 1
gene  1 47 65 0.0 0 326 0 1
gene  1 47 66 0.0 0 327 0 1
gene  1 47 67 0.0 0 328 0 1
gene  1 47 68 0.0 0 329 0 1
gene  1 48 62 0.0 0 330 0 1
gene  1 48 63 0.0 0 331 0 1
gene  1 48 64 0.0 0 332 0 1
gene  1 48 65 0.0 0 333 0 1
gene  1 48 66 0.0 0 334 0 1
gene  1 48 67 0.0 0 335 0 1
gene  1 48 68 0.0 0 336 0 1
gene  1 49 62 0.0 0 337 0 1
gene  1 49 63 0.0 0 338 0 1
gene  1 49 64 0.0 0 339 0 1
gene  1 49 65 0.0 0 340 0 1
gene  1 49 66 0.0 0 341 0 1
gene  1 49 67 0.0 0 342 0 1
gene  1 49 68 0.0 0 343 0 1
gene  1 50 62 0.0 0 344 0 1
gene  1 50 63 0.0 0 345 0 1
gene  1 50 64 0.0 0 346 0 1
gene  1 50 65 0.0 0 347 0 1
gene  1 50 66 0.0 0 348 0 1
gene  1 50 67 0.0 0 349 0 1
gene  1 50 68 0.0 0 350 0 1
gene  1 51 62 0.0 0 351 0 1
gene  1 51 63 0.0 0 352 0 1
gene  1 51 64 0.0 0 353 0 1
gene  1 51 65 0.0 0 354 0 1
gene  1 51 66 0.0 0 355 0 1
gene  1 51 67 0.0 0 356 0 1
gene  1 51 68 0.0 0 357 0 1
gene  1 52 62 0.0 0 358 0 1
gene  1 52 63 0.0 0 359 0 1
gene  1 52 64 0.0 0 360 0 1
gene  1 52 65 0.0 0 361 0 1
gene  1 52 66 0.0 0 362 0 1
gene  1 52 67 0.0 0 363 0 1
gene  1 52 68 0.0 0 364 0 1
gene  1 53 62 0.0 0 365 0 1
gene  1 53 63 0.0 0 366 0 1
gene  1 53 64 0.0 0 367 0 1
gene  1 53 65 0.0 0 368 0 1
gene  1 53 66 0.0 0 369 0 1
gene  1 53 67 0.0 0 370 0 1
gene  1 53 68 0.0 0 371 0 1
gene  1 54 62 0.0 0 372 0 1
gene  1 54 63 0.0 0 373 0 1
gene  1 54 64 0.0 0 374 0 1
gene  1 54 65 0.0 0 375 0 1
gene  1 54 66 0.0 0 376 0 1
gene  1 54 67 0.0 0 377 0 1
gene  1 54 68 0.0 0 378 0 1
gene  1 55 62 0.0 0 379 0 1
gene  1 55 63 0.0 0 380 0 1
gene  1 55 64 0.0 0 381 0 1
gene  1 55 65 0.0 0 382 0 1
gene  1 55 66 0.0 0 383 0 1
gene  1 55 67 0.0 0 384 0 1
gene  1 55 68 0.0 0 385 0 1
gene  1 56 62 0.0 0 386 0 1
gene  1 56 63 0.0 0 387 0 1
gene  1 56 64 0.0 0 388 0 1
gene  1 56 65 0.0 0 389 0 1
gene  1 56 66 0.0 0 390 0 1
gene  1 56 67 0.0 0 391 0 1
gene  1 56 68 0.0 0 392 0 1
gene  1 57 62 0.0 0 393 0 1
gene  1 57 63 0.0 0 394 0 1
gene  1 57 64 0.0 0 395 0 1
gene  1 57 65 0.0 0 396 0 1
gene  1 57 66 0.0 0 397 0 1
gene  1 57 67 0.0 0 398 0 1
gene  1 57 68 0.0 0 399 0 1
gene  1 58 62 0.0 0 400 0 1
gene  1 58 63 0.0 0 401 0 1
gene  1 58 64 0.0 0 402 0 1
gene  1 58 65 0.0 0 403 0 1
gene  1 58 66 0.0 0 404 0 1
gene  1 58 67 0.0 0 405 0 1
gene  1 58 68 0.0 0 406 0 1
gene  1 59 62 0.0 0 407 0 1
gene  1 59 63 0.0 0 408 0 1
gene  1 59 64 0.0 0 409 0 1
gene  1 59 65 0.0 0 410 0 1
gene  1 59 66 0.0 0 411 0 1
gene  1 59 67 0.0 0 412 0 1
gene  1 59 68 0.0 0 413 0 1
gene  1 60 62 0.0 0 414 0 1
gene  1 60 63 0.0 0 415 0 1
gene  1 60 64 0.0 0 416 0 1
gene  1 60 65 0.0 0 417 0 1
gene  1 60 66 0.0 0 418 0 1
gene  1 60 67 0.0 0 419 0 1
gene  1 60 68 0.0 0 420 0 1
gene  1 61 62 0.0 0 421 0 1
gene  1 61 63 0.0 0 422 0 1
gene  1 61 64 0.0 0 423 0 1
gene  1 61 65 0.0 0 424 0 1
gene  1 61 66 0.0 0 425 0 1
gene  1 61 67 0.0 0 426 0 1
gene  1 61 68 0.0 0 427 0 1
genomeend 1
