genomestart 1
trait 1 0.1 0 0 0 0 0 0 0
node 1 0 1 1
node 2 0 1 1
node 3 0 1 1
node 4 0 1 1
node 5 0 1 1
node 6 0 1 1
node 7 0 1 1
node 8 0 1 1
node 9 0 1 1
node 10 0 1 1
node 11 0 1 1
node 12 0 1 1
node 13 0 1 1
node 14 0 1 1
node 15 0 1 1
node 16 0 1 1
node 17 0 1 1
node 18 0 1 1
node 19 0 1 1
node 20 0 1 1
node 21 0 1 1
node 22 0 1 1
node 23 0 1 3
node 24 0 0 2
node 25 0 0 2
gene 1 1 24 0.0 0 1 0 1
gene 1 1 25 0.0 0 2 0 1
gene 1 2 24 0.0 0 3 0 1
gene 1 2 25 0.0 0 4 0 1
gene 1 3 24 0.0 0 5 0 1
gene 1 3 25 0.0 0 6 0 1
gene 1 4 24 0.0 0 7 0 1
gene 1 4 25 0.0 0 8 0 1
gene 1 5 24 0.0 0 9 0 1
gene 1 5 25 0.0 0 10 0 1
gene 1 6 24 0.0 0 11 0 1
gene 1 6 25 0.0 0 12 0 1
gene 1 7 24 0.0 0 13 0 1
gene 1 7 25 0.0 0 14 0 1
gene 1 8 24 0.0 0 15 0 1
gene 1 8 25 0.0 0 16 0 1
gene 1 9 24 0.0 0 17 0 1
gene 1 9 25 0.0 0 18 0 1
gene 1 10 24 0.0 0 19 0 1
gene 1 10 25 0.0 0 20 0 1
gene 1 11 24 0.0 0 21 0 1
gene 1 11 25 0.0 0 22 0 1
gene 1 12 24 0.0 0 23 0 1
gene 1 12 25 0.0 0 24 0 1
gene 1 13 24 0.0 0 25 0 1
gene 1 13 25 0.0 0 26 0 1
gene 1 14 24 0.0 0 27 0 1
gene 1 14 25 0.0 0 28 0 1
gene 1 15 24 0.0 0 29 0 1
gene 1 15 25 0.0 0 30 0 1
gene 1 16 24 0.0 0 31 0 1
gene 1 16 25 0.0 0 32 0 1
gene 1 17 24 0.0 0 33 0 1
gene 1 17 25 0.0 0 34 0 1
gene 1 18 24 0.0 0 35 0 1
gene 1 18 25 0.0 0 36 0 1
gene 1 19 24 0.0 0 37 0 1
gene 1 19 25 0.0 0 38 0 1
gene 1 20 24 0.0 0 39 0 1
gene 1 20 25 0.0 0 40 0 1
gene 1 21 24 0.0 0 41 0 1
gene 1 21 25 0.0 0 42 0 1
gene 1 22 24 0.0 0 43 0 1
gene 1 22 25 0.0 0 44 0 1
gene 1 23 24 0.0 0 45 0 1
gene 1 23 25 0.0 0 46 0 1
genomeend 1