genomestart 1
trait 1 0.1 0 0 0 0 0 0 0
node 1 0 1 1
node 2 0 1 1
node 3 0 1 1
node 4 0 1 1
node 5 0 1 1
node 6 0 1 1
node 7 0 1 1
node 8 0 1 1
node 9 0 1 1
node 10 0 1 1
node 11 0 1 1
node 12 0 1 1
node 13 0 1 1
node 14 0 1 1
node 15 0 1 1
node 16 0 1 1
node 17 0 1 1
node 18 0 1 1
node 19 0 1 1
node 20 0 1 1
node 21 0 1 1
node 22 0 1 1
node 23 0 1 1
node 24 0 1 1
node 25 0 1 1
node 26 0 1 1
node 27 0 1 1
node 28 0 1 1
node 29 0 1 1
node 30 0 1 1
node 31 0 1 1
node 32 0 1 1
node 33 0 1 1
node 34 0 1 1
node 35 0 1 1
node 36 0 1 1
node 37 0 1 1
node 38 0 1 1
node 39 0 1 1
node 40 0 1 1
node 41 0 1 1
node 42 0 1 1
node 43 0 1 1
node 44 0 1 1
node 45 0 1 1
node 46 0 1 1
node 47 0 1 1
node 48 0 1 1
node 49 0 1 3
node 50 0 0 2
node 51 0 0 2
node 52 0 0 2
node 53 0 0 2
node 54 0 0 2
node 55 0 0 2
gene 1 1 50 0.0 0 1 0 1
gene 1 1 51 0.0 0 2 0 1
gene 1 1 52 0.0 0 3 0 1
gene 1 1 53 0.0 0 4 0 1
gene 1 1 54 0.0 0 5 0 1
gene 1 1 55 0.0 0 6 0 1
gene 1 2 50 0.0 0 7 0 1
gene 1 2 51 0.0 0 8 0 1
gene 1 2 52 0.0 0 9 0 1
gene 1 2 53 0.0 0 10 0 1
gene 1 2 54 0.0 0 11 0 1
gene 1 2 55 0.0 0 12 0 1
gene 1 3 50 0.0 0 13 0 1
gene 1 3 51 0.0 0 14 0 1
gene 1 3 52 0.0 0 15 0 1
gene 1 3 53 0.0 0 16 0 1
gene 1 3 54 0.0 0 17 0 1
gene 1 3 55 0.0 0 18 0 1
gene 1 4 50 0.0 0 19 0 1
gene 1 4 51 0.0 0 20 0 1
gene 1 4 52 0.0 0 21 0 1
gene 1 4 53 0.0 0 22 0 1
gene 1 4 54 0.0 0 23 0 1
gene 1 4 55 0.0 0 24 0 1
gene 1 5 50 0.0 0 25 0 1
gene 1 5 51 0.0 0 26 0 1
gene 1 5 52 0.0 0 27 0 1
gene 1 5 53 0.0 0 28 0 1
gene 1 5 54 0.0 0 29 0 1
gene 1 5 55 0.0 0 30 0 1
gene 1 6 50 0.0 0 31 0 1
gene 1 6 51 0.0 0 32 0 1
gene 1 6 52 0.0 0 33 0 1
gene 1 6 53 0.0 0 34 0 1
gene 1 6 54 0.0 0 35 0 1
gene 1 6 55 0.0 0 36 0 1
gene 1 7 50 0.0 0 37 0 1
gene 1 7 51 0.0 0 38 0 1
gene 1 7 52 0.0 0 39 0 1
gene 1 7 53 0.0 0 40 0 1
gene 1 7 54 0.0 0 41 0 1
gene 1 7 55 0.0 0 42 0 1
gene 1 8 50 0.0 0 43 0 1
gene 1 8 51 0.0 0 44 0 1
gene 1 8 52 0.0 0 45 0 1
gene 1 8 53 0.0 0 46 0 1
gene 1 8 54 0.0 0 47 0 1
gene 1 8 55 0.0 0 48 0 1
gene 1 9 50 0.0 0 49 0 1
gene 1 9 51 0.0 0 50 0 1
gene 1 9 52 0.0 0 51 0 1
gene 1 9 53 0.0 0 52 0 1
gene 1 9 54 0.0 0 53 0 1
gene 1 9 55 0.0 0 54 0 1
gene 1 10 50 0.0 0 55 0 1
gene 1 10 51 0.0 0 56 0 1
gene 1 10 52 0.0 0 57 0 1
gene 1 10 53 0.0 0 58 0 1
gene 1 10 54 0.0 0 59 0 1
gene 1 10 55 0.0 0 60 0 1
gene 1 11 50 0.0 0 61 0 1
gene 1 11 51 0.0 0 62 0 1
gene 1 11 52 0.0 0 63 0 1
gene 1 11 53 0.0 0 64 0 1
gene 1 11 54 0.0 0 65 0 1
gene 1 11 55 0.0 0 66 0 1
gene 1 12 50 0.0 0 67 0 1
gene 1 12 51 0.0 0 68 0 1
gene 1 12 52 0.0 0 69 0 1
gene 1 12 53 0.0 0 70 0 1
gene 1 12 54 0.0 0 71 0 1
gene 1 12 55 0.0 0 72 0 1
gene 1 13 50 0.0 0 73 0 1
gene 1 13 51 0.0 0 74 0 1
gene 1 13 52 0.0 0 75 0 1
gene 1 13 53 0.0 0 76 0 1
gene 1 13 54 0.0 0 77 0 1
gene 1 13 55 0.0 0 78 0 1
gene 1 14 50 0.0 0 79 0 1
gene 1 14 51 0.0 0 80 0 1
gene 1 14 52 0.0 0 81 0 1
gene 1 14 53 0.0 0 82 0 1
gene 1 14 54 0.0 0 83 0 1
gene 1 14 55 0.0 0 84 0 1
gene 1 15 50 0.0 0 85 0 1
gene 1 15 51 0.0 0 86 0 1
gene 1 15 52 0.0 0 87 0 1
gene 1 15 53 0.0 0 88 0 1
gene 1 15 54 0.0 0 89 0 1
gene 1 15 55 0.0 0 90 0 1
gene 1 16 50 0.0 0 91 0 1
gene 1 16 51 0.0 0 92 0 1
gene 1 16 52 0.0 0 93 0 1
gene 1 16 53 0.0 0 94 0 1
gene 1 16 54 0.0 0 95 0 1
gene 1 16 55 0.0 0 96 0 1
gene 1 17 50 0.0 0 97 0 1
gene 1 17 51 0.0 0 98 0 1
gene 1 17 52 0.0 0 99 0 1
gene 1 17 53 0.0 0 100 0 1
gene 1 17 54 0.0 0 101 0 1
gene 1 17 55 0.0 0 102 0 1
gene 1 18 50 0.0 0 103 0 1
gene 1 18 51 0.0 0 104 0 1
gene 1 18 52 0.0 0 105 0 1
gene 1 18 53 0.0 0 106 0 1
gene 1 18 54 0.0 0 107 0 1
gene 1 18 55 0.0 0 108 0 1
gene 1 19 50 0.0 0 109 0 1
gene 1 19 51 0.0 0 110 0 1
gene 1 19 52 0.0 0 111 0 1
gene 1 19 53 0.0 0 112 0 1
gene 1 19 54 0.0 0 113 0 1
gene 1 19 55 0.0 0 114 0 1
gene 1 20 50 0.0 0 115 0 1
gene 1 20 51 0.0 0 116 0 1
gene 1 20 52 0.0 0 117 0 1
gene 1 20 53 0.0 0 118 0 1
gene 1 20 54 0.0 0 119 0 1
gene 1 20 55 0.0 0 120 0 1
gene 1 21 50 0.0 0 121 0 1
gene 1 21 51 0.0 0 122 0 1
gene 1 21 52 0.0 0 123 0 1
gene 1 21 53 0.0 0 124 0 1
gene 1 21 54 0.0 0 125 0 1
gene 1 21 55 0.0 0 126 0 1
gene 1 22 50 0.0 0 127 0 1
gene 1 22 51 0.0 0 128 0 1
gene 1 22 52 0.0 0 129 0 1
gene 1 22 53 0.0 0 130 0 1
gene 1 22 54 0.0 0 131 0 1
gene 1 22 55 0.0 0 132 0 1
gene 1 23 50 0.0 0 133 0 1
gene 1 23 51 0.0 0 134 0 1
gene 1 23 52 0.0 0 135 0 1
gene 1 23 53 0.0 0 136 0 1
gene 1 23 54 0.0 0 137 0 1
gene 1 23 55 0.0 0 138 0 1
gene 1 24 50 0.0 0 139 0 1
gene 1 24 51 0.0 0 140 0 1
gene 1 24 52 0.0 0 141 0 1
gene 1 24 53 0.0 0 142 0 1
gene 1 24 54 0.0 0 143 0 1
gene 1 24 55 0.0 0 144 0 1
gene 1 25 50 0.0 0 145 0 1
gene 1 25 51 0.0 0 146 0 1
gene 1 25 52 0.0 0 147 0 1
gene 1 25 53 0.0 0 148 0 1
gene 1 25 54 0.0 0 149 0 1
gene 1 25 55 0.0 0 150 0 1
gene 1 26 50 0.0 0 151 0 1
gene 1 26 51 0.0 0 152 0 1
gene 1 26 52 0.0 0 153 0 1
gene 1 26 53 0.0 0 154 0 1
gene 1 26 54 0.0 0 155 0 1
gene 1 26 55 0.0 0 156 0 1
gene 1 27 50 0.0 0 157 0 1
gene 1 27 51 0.0 0 158 0 1
gene 1 27 52 0.0 0 159 0 1
gene 1 27 53 0.0 0 160 0 1
gene 1 27 54 0.0 0 161 0 1
gene 1 27 55 0.0 0 162 0 1
gene 1 28 50 0.0 0 163 0 1
gene 1 28 51 0.0 0 164 0 1
gene 1 28 52 0.0 0 165 0 1
gene 1 28 53 0.0 0 166 0 1
gene 1 28 54 0.0 0 167 0 1
gene 1 28 55 0.0 0 168 0 1
gene 1 29 50 0.0 0 169 0 1
gene 1 29 51 0.0 0 170 0 1
gene 1 29 52 0.0 0 171 0 1
gene 1 29 53 0.0 0 172 0 1
gene 1 29 54 0.0 0 173 0 1
gene 1 29 55 0.0 0 174 0 1
gene 1 30 50 0.0 0 175 0 1
gene 1 30 51 0.0 0 176 0 1
gene 1 30 52 0.0 0 177 0 1
gene 1 30 53 0.0 0 178 0 1
gene 1 30 54 0.0 0 179 0 1
gene 1 30 55 0.0 0 180 0 1
gene 1 31 50 0.0 0 181 0 1
gene 1 31 51 0.0 0 182 0 1
gene 1 31 52 0.0 0 183 0 1
gene 1 31 53 0.0 0 184 0 1
gene 1 31 54 0.0 0 185 0 1
gene 1 31 55 0.0 0 186 0 1
gene 1 32 50 0.0 0 187 0 1
gene 1 32 51 0.0 0 188 0 1
gene 1 32 52 0.0 0 189 0 1
gene 1 32 53 0.0 0 190 0 1
gene 1 32 54 0.0 0 191 0 1
gene 1 32 55 0.0 0 192 0 1
gene 1 33 50 0.0 0 193 0 1
gene 1 33 51 0.0 0 194 0 1
gene 1 33 52 0.0 0 195 0 1
gene 1 33 53 0.0 0 196 0 1
gene 1 33 54 0.0 0 197 0 1
gene 1 33 55 0.0 0 198 0 1
gene 1 34 50 0.0 0 199 0 1
gene 1 34 51 0.0 0 200 0 1
gene 1 34 52 0.0 0 201 0 1
gene 1 34 53 0.0 0 202 0 1
gene 1 34 54 0.0 0 203 0 1
gene 1 34 55 0.0 0 204 0 1
gene 1 35 50 0.0 0 205 0 1
gene 1 35 51 0.0 0 206 0 1
gene 1 35 52 0.0 0 207 0 1
gene 1 35 53 0.0 0 208 0 1
gene 1 35 54 0.0 0 209 0 1
gene 1 35 55 0.0 0 210 0 1
gene 1 36 50 0.0 0 211 0 1
gene 1 36 51 0.0 0 212 0 1
gene 1 36 52 0.0 0 213 0 1
gene 1 36 53 0.0 0 214 0 1
gene 1 36 54 0.0 0 215 0 1
gene 1 36 55 0.0 0 216 0 1
gene 1 37 50 0.0 0 217 0 1
gene 1 37 51 0.0 0 218 0 1
gene 1 37 52 0.0 0 219 0 1
gene 1 37 53 0.0 0 220 0 1
gene 1 37 54 0.0 0 221 0 1
gene 1 37 55 0.0 0 222 0 1
gene 1 38 50 0.0 0 223 0 1
gene 1 38 51 0.0 0 224 0 1
gene 1 38 52 0.0 0 225 0 1
gene 1 38 53 0.0 0 226 0 1
gene 1 38 54 0.0 0 227 0 1
gene 1 38 55 0.0 0 228 0 1
gene 1 39 50 0.0 0 229 0 1
gene 1 39 51 0.0 0 230 0 1
gene 1 39 52 0.0 0 231 0 1
gene 1 39 53 0.0 0 232 0 1
gene 1 39 54 0.0 0 233 0 1
gene 1 39 55 0.0 0 234 0 1
gene 1 40 50 0.0 0 235 0 1
gene 1 40 51 0.0 0 236 0 1
gene 1 40 52 0.0 0 237 0 1
gene 1 40 53 0.0 0 238 0 1
gene 1 40 54 0.0 0 239 0 1
gene 1 40 55 0.0 0 240 0 1
gene 1 41 50 0.0 0 241 0 1
gene 1 41 51 0.0 0 242 0 1
gene 1 41 52 0.0 0 243 0 1
gene 1 41 53 0.0 0 244 0 1
gene 1 41 54 0.0 0 245 0 1
gene 1 41 55 0.0 0 246 0 1
gene 1 42 50 0.0 0 247 0 1
gene 1 42 51 0.0 0 248 0 1
gene 1 42 52 0.0 0 249 0 1
gene 1 42 53 0.0 0 250 0 1
gene 1 42 54 0.0 0 251 0 1
gene 1 42 55 0.0 0 252 0 1
gene 1 43 50 0.0 0 253 0 1
gene 1 43 51 0.0 0 254 0 1
gene 1 43 52 0.0 0 255 0 1
gene 1 43 53 0.0 0 256 0 1
gene 1 43 54 0.0 0 257 0 1
gene 1 43 55 0.0 0 258 0 1
gene 1 44 50 0.0 0 259 0 1
gene 1 44 51 0.0 0 260 0 1
gene 1 44 52 0.0 0 261 0 1
gene 1 44 53 0.0 0 262 0 1
gene 1 44 54 0.0 0 263 0 1
gene 1 44 55 0.0 0 264 0 1
gene 1 45 50 0.0 0 265 0 1
gene 1 45 51 0.0 0 266 0 1
gene 1 45 52 0.0 0 267 0 1
gene 1 45 53 0.0 0 268 0 1
gene 1 45 54 0.0 0 269 0 1
gene 1 45 55 0.0 0 270 0 1
gene 1 46 50 0.0 0 271 0 1
gene 1 46 51 0.0 0 272 0 1
gene 1 46 52 0.0 0 273 0 1
gene 1 46 53 0.0 0 274 0 1
gene 1 46 54 0.0 0 275 0 1
gene 1 46 55 0.0 0 276 0 1
gene 1 47 50 0.0 0 277 0 1
gene 1 47 51 0.0 0 278 0 1
gene 1 47 52 0.0 0 279 0 1
gene 1 47 53 0.0 0 280 0 1
gene 1 47 54 0.0 0 281 0 1
gene 1 47 55 0.0 0 282 0 1
gene 1 48 50 0.0 0 283 0 1
gene 1 48 51 0.0 0 284 0 1
gene 1 48 52 0.0 0 285 0 1
gene 1 48 53 0.0 0 286 0 1
gene 1 48 54 0.0 0 287 0 1
gene 1 48 55 0.0 0 288 0 1
gene 1 49 50 0.0 0 289 0 1
gene 1 49 51 0.0 0 290 0 1
gene 1 49 52 0.0 0 291 0 1
gene 1 49 53 0.0 0 292 0 1
gene 1 49 54 0.0 0 293 0 1
gene 1 49 55 0.0 0 294 0 1
genomeend 1
