genomestart 1
trait 1 0.1 0 0 0 0 0 0 0
node 1 0 1 1
node 2 0 1 1
node 3 0 1 1
node 4 0 1 1
node 5 0 1 1
node 6 0 1 1
node 7 0 1 1
node 8 0 1 1
node 9 0 1 1
node 10 0 1 1
node 11 0 1 1
node 12 0 1 1
node 13 0 1 1
node 14 0 1 1
node 15 0 1 1
node 16 0 1 1
node 17 0 1 1
node 18 0 1 1
node 19 0 1 1
node 20 0 1 1
node 21 0 1 1
node 22 0 1 1
node 23 0 1 1
node 24 0 1 1
node 25 0 1 1
node 26 0 1 1
node 27 0 1 1
node 28 0 1 1
node 29 0 1 1
node 30 0 1 1
node 31 0 1 1
node 32 0 1 1
node 33 0 1 1
node 34 0 1 1
node 35 0 1 1
node 36 0 1 3
node 37 0 0 2
node 38 0 0 2
node 39 0 0 2
node 40 0 0 2
node 41 0 0 2
gene 1 1 37 0.0 0 1 0 1
gene 1 1 38 0.0 0 2 0 1
gene 1 1 39 0.0 0 3 0 1
gene 1 1 40 0.0 0 4 0 1
gene 1 1 41 0.0 0 5 0 1
gene 1 2 37 0.0 0 6 0 1
gene 1 2 38 0.0 0 7 0 1
gene 1 2 39 0.0 0 8 0 1
gene 1 2 40 0.0 0 9 0 1
gene 1 2 41 0.0 0 10 0 1
gene 1 3 37 0.0 0 11 0 1
gene 1 3 38 0.0 0 12 0 1
gene 1 3 39 0.0 0 13 0 1
gene 1 3 40 0.0 0 14 0 1
gene 1 3 41 0.0 0 15 0 1
gene 1 4 37 0.0 0 16 0 1
gene 1 4 38 0.0 0 17 0 1
gene 1 4 39 0.0 0 18 0 1
gene 1 4 40 0.0 0 19 0 1
gene 1 4 41 0.0 0 20 0 1
gene 1 5 37 0.0 0 21 0 1
gene 1 5 38 0.0 0 22 0 1
gene 1 5 39 0.0 0 23 0 1
gene 1 5 40 0.0 0 24 0 1
gene 1 5 41 0.0 0 25 0 1
gene 1 6 37 0.0 0 26 0 1
gene 1 6 38 0.0 0 27 0 1
gene 1 6 39 0.0 0 28 0 1
gene 1 6 40 0.0 0 29 0 1
gene 1 6 41 0.0 0 30 0 1
gene 1 7 37 0.0 0 31 0 1
gene 1 7 38 0.0 0 32 0 1
gene 1 7 39 0.0 0 33 0 1
gene 1 7 40 0.0 0 34 0 1
gene 1 7 41 0.0 0 35 0 1
gene 1 8 37 0.0 0 36 0 1
gene 1 8 38 0.0 0 37 0 1
gene 1 8 39 0.0 0 38 0 1
gene 1 8 40 0.0 0 39 0 1
gene 1 8 41 0.0 0 40 0 1
gene 1 9 37 0.0 0 41 0 1
gene 1 9 38 0.0 0 42 0 1
gene 1 9 39 0.0 0 43 0 1
gene 1 9 40 0.0 0 44 0 1
gene 1 9 41 0.0 0 45 0 1
gene 1 10 37 0.0 0 46 0 1
gene 1 10 38 0.0 0 47 0 1
gene 1 10 39 0.0 0 48 0 1
gene 1 10 40 0.0 0 49 0 1
gene 1 10 41 0.0 0 50 0 1
gene 1 11 37 0.0 0 51 0 1
gene 1 11 38 0.0 0 52 0 1
gene 1 11 39 0.0 0 53 0 1
gene 1 11 40 0.0 0 54 0 1
gene 1 11 41 0.0 0 55 0 1
gene 1 12 37 0.0 0 56 0 1
gene 1 12 38 0.0 0 57 0 1
gene 1 12 39 0.0 0 58 0 1
gene 1 12 40 0.0 0 59 0 1
gene 1 12 41 0.0 0 60 0 1
gene 1 13 37 0.0 0 61 0 1
gene 1 13 38 0.0 0 62 0 1
gene 1 13 39 0.0 0 63 0 1
gene 1 13 40 0.0 0 64 0 1
gene 1 13 41 0.0 0 65 0 1
gene 1 14 37 0.0 0 66 0 1
gene 1 14 38 0.0 0 67 0 1
gene 1 14 39 0.0 0 68 0 1
gene 1 14 40 0.0 0 69 0 1
gene 1 14 41 0.0 0 70 0 1
gene 1 15 37 0.0 0 71 0 1
gene 1 15 38 0.0 0 72 0 1
gene 1 15 39 0.0 0 73 0 1
gene 1 15 40 0.0 0 74 0 1
gene 1 15 41 0.0 0 75 0 1
gene 1 16 37 0.0 0 76 0 1
gene 1 16 38 0.0 0 77 0 1
gene 1 16 39 0.0 0 78 0 1
gene 1 16 40 0.0 0 79 0 1
gene 1 16 41 0.0 0 80 0 1
gene 1 17 37 0.0 0 81 0 1
gene 1 17 38 0.0 0 82 0 1
gene 1 17 39 0.0 0 83 0 1
gene 1 17 40 0.0 0 84 0 1
gene 1 17 41 0.0 0 85 0 1
gene 1 18 37 0.0 0 86 0 1
gene 1 18 38 0.0 0 87 0 1
gene 1 18 39 0.0 0 88 0 1
gene 1 18 40 0.0 0 89 0 1
gene 1 18 41 0.0 0 90 0 1
gene 1 19 37 0.0 0 91 0 1
gene 1 19 38 0.0 0 92 0 1
gene 1 19 39 0.0 0 93 0 1
gene 1 19 40 0.0 0 94 0 1
gene 1 19 41 0.0 0 95 0 1
gene 1 20 37 0.0 0 96 0 1
gene 1 20 38 0.0 0 97 0 1
gene 1 20 39 0.0 0 98 0 1
gene 1 20 40 0.0 0 99 0 1
gene 1 20 41 0.0 0 100 0 1
gene 1 21 37 0.0 0 101 0 1
gene 1 21 38 0.0 0 102 0 1
gene 1 21 39 0.0 0 103 0 1
gene 1 21 40 0.0 0 104 0 1
gene 1 21 41 0.0 0 105 0 1
gene 1 22 37 0.0 0 106 0 1
gene 1 22 38 0.0 0 107 0 1
gene 1 22 39 0.0 0 108 0 1
gene 1 22 40 0.0 0 109 0 1
gene 1 22 41 0.0 0 110 0 1
gene 1 23 37 0.0 0 111 0 1
gene 1 23 38 0.0 0 112 0 1
gene 1 23 39 0.0 0 113 0 1
gene 1 23 40 0.0 0 114 0 1
gene 1 23 41 0.0 0 115 0 1
gene 1 24 37 0.0 0 116 0 1
gene 1 24 38 0.0 0 117 0 1
gene 1 24 39 0.0 0 118 0 1
gene 1 24 40 0.0 0 119 0 1
gene 1 24 41 0.0 0 120 0 1
gene 1 25 37 0.0 0 121 0 1
gene 1 25 38 0.0 0 122 0 1
gene 1 25 39 0.0 0 123 0 1
gene 1 25 40 0.0 0 124 0 1
gene 1 25 41 0.0 0 125 0 1
gene 1 26 37 0.0 0 126 0 1
gene 1 26 38 0.0 0 127 0 1
gene 1 26 39 0.0 0 128 0 1
gene 1 26 40 0.0 0 129 0 1
gene 1 26 41 0.0 0 130 0 1
gene 1 27 37 0.0 0 131 0 1
gene 1 27 38 0.0 0 132 0 1
gene 1 27 39 0.0 0 133 0 1
gene 1 27 40 0.0 0 134 0 1
gene 1 27 41 0.0 0 135 0 1
gene 1 28 37 0.0 0 136 0 1
gene 1 28 38 0.0 0 137 0 1
gene 1 28 39 0.0 0 138 0 1
gene 1 28 40 0.0 0 139 0 1
gene 1 28 41 0.0 0 140 0 1
gene 1 29 37 0.0 0 141 0 1
gene 1 29 38 0.0 0 142 0 1
gene 1 29 39 0.0 0 143 0 1
gene 1 29 40 0.0 0 144 0 1
gene 1 29 41 0.0 0 145 0 1
gene 1 30 37 0.0 0 146 0 1
gene 1 30 38 0.0 0 147 0 1
gene 1 30 39 0.0 0 148 0 1
gene 1 30 40 0.0 0 149 0 1
gene 1 30 41 0.0 0 150 0 1
gene 1 31 37 0.0 0 151 0 1
gene 1 31 38 0.0 0 152 0 1
gene 1 31 39 0.0 0 153 0 1
gene 1 31 40 0.0 0 154 0 1
gene 1 31 41 0.0 0 155 0 1
gene 1 32 37 0.0 0 156 0 1
gene 1 32 38 0.0 0 157 0 1
gene 1 32 39 0.0 0 158 0 1
gene 1 32 40 0.0 0 159 0 1
gene 1 32 41 0.0 0 160 0 1
gene 1 33 37 0.0 0 161 0 1
gene 1 33 38 0.0 0 162 0 1
gene 1 33 39 0.0 0 163 0 1
gene 1 33 40 0.0 0 164 0 1
gene 1 33 41 0.0 0 165 0 1
gene 1 34 37 0.0 0 166 0 1
gene 1 34 38 0.0 0 167 0 1
gene 1 34 39 0.0 0 168 0 1
gene 1 34 40 0.0 0 169 0 1
gene 1 34 41 0.0 0 170 0 1
gene 1 35 37 0.0 0 171 0 1
gene 1 35 38 0.0 0 172 0 1
gene 1 35 39 0.0 0 173 0 1
gene 1 35 40 0.0 0 174 0 1
gene 1 35 41 0.0 0 175 0 1
gene 1 36 37 0.0 0 176 0 1
gene 1 36 38 0.0 0 177 0 1
gene 1 36 39 0.0 0 178 0 1
gene 1 36 40 0.0 0 179 0 1
gene 1 36 41 0.0 0 180 0 1
genomeend 1
