/* Organism #1 Fitness: -0.255018 Time: 0 */
genomestart 1
trait 1 0.061724 0.000000 0.404187 0.137107 0.000000 0.000000 0.000000 0.000000 
node 1 1 1 1
node 2 1 1 1
node 3 1 1 1
node 4 1 1 1
node 5 1 1 1
node 6 1 1 1
node 7 1 1 1
node 8 1 1 1
node 9 1 1 1
node 10 1 1 1
node 11 1 1 1
node 12 1 1 1
node 13 1 1 1
node 14 1 1 1
node 15 1 1 1
node 16 1 1 1
node 17 1 1 1
node 18 1 1 1
node 19 1 1 1
node 20 1 1 1
node 21 1 1 1
node 22 1 1 1
node 23 1 1 1
node 24 1 1 1
node 25 1 1 1
node 26 1 1 1
node 27 1 1 1
node 28 1 1 1
node 29 1 1 1
node 30 1 1 1
node 31 1 1 1
node 32 1 1 1
node 33 1 1 1
node 34 1 1 1
node 35 1 1 1
node 36 1 1 1
node 37 1 1 1
node 38 1 1 1
node 39 1 1 1
node 40 1 1 1
node 41 1 1 1
node 42 1 1 1
node 43 1 1 1
node 44 1 1 1
node 45 1 1 1
node 46 1 1 1
node 47 1 1 1
node 48 1 1 1
node 49 1 1 3
node 50 1 0 2
node 51 1 0 2
node 52 1 0 2
node 53 1 0 2
node 54 1 0 2
node 55 1 0 2
gene 1 1 50 0.339285 0 1 0.339285 1
gene 1 1 51 -0.192894 0 2 -0.192894 1
gene 1 1 52 -1.59197 0 3 -1.59197 1
gene 1 1 53 -3.45886 0 4 -3.45886 1
gene 1 1 54 2.60178 0 5 2.60178 1
gene 1 1 55 -3.89424 0 6 -3.89424 1
gene 1 2 50 -3.7461 0 7 -3.7461 1
gene 1 2 51 -1.42601 0 8 -1.42601 1
gene 1 2 52 -0.0879772 0 9 -0.0879772 1
gene 1 2 53 -0.158123 0 10 -0.158123 1
gene 1 2 54 -2.19187 0 11 -2.19187 1
gene 1 2 55 -2.97628 0 12 -2.97628 1
gene 1 3 50 2.73505 0 13 2.73505 1
gene 1 3 51 2.16812 0 14 2.16812 1
gene 1 3 52 2.00851 0 15 2.00851 1
gene 1 3 53 -2.10083 0 16 -2.10083 1
gene 1 3 54 -0.830725 0 17 -0.830725 1
gene 1 3 55 -1.11668 0 18 -1.11668 1
gene 1 4 50 -2.44128 0 19 -2.44128 1
gene 1 4 51 1.35631 0 20 1.35631 1
gene 1 4 52 4.32227 0 21 4.32227 1
gene 1 4 53 -1.17363 0 22 -1.17363 1
gene 1 4 54 0.303456 0 23 0.303456 1
gene 1 4 55 -4.04697 0 24 -4.04697 1
gene 1 5 50 -0.779485 0 25 -0.779485 1
gene 1 5 51 0.533896 0 26 0.533896 1
gene 1 5 52 -3.59727 0 27 -3.59727 1
gene 1 5 53 2.61573 0 28 2.61573 1
gene 1 5 54 1.86514 0 29 1.86514 1
gene 1 5 55 0.236875 0 30 0.236875 1
gene 1 6 50 -0.726424 0 31 -0.726424 1
gene 1 6 51 1.52695 0 32 1.52695 1
gene 1 6 52 1.37216 0 33 1.37216 1
gene 1 6 53 -3.83976 0 34 -3.83976 1
gene 1 6 54 -1.6599 0 35 -1.6599 1
gene 1 6 55 -2.51894 0 36 -2.51894 1
gene 1 7 50 -4.54385 0 37 -4.54385 1
gene 1 7 51 0.878466 0 38 0.878466 1
gene 1 7 52 -1.37951 0 39 -1.37951 1
gene 1 7 53 -0.230054 0 40 -0.230054 1
gene 1 7 54 -0.179575 0 41 -0.179575 1
gene 1 7 55 2.47901 0 42 2.47901 1
gene 1 8 50 2.23361 0 43 2.23361 1
gene 1 8 51 -1.39389 0 44 -1.39389 1
gene 1 8 52 -1.42389 0 45 -1.42389 1
gene 1 8 53 2.39354 0 46 2.39354 1
gene 1 8 54 -0.0214202 0 47 -0.0214202 1
gene 1 8 55 0.570292 0 48 0.570292 1
gene 1 9 50 0.441119 0 49 0.441119 1
gene 1 9 51 1.79135 0 50 1.79135 1
gene 1 9 52 -3.76078 0 51 -3.76078 1
gene 1 9 53 2.60579 0 52 2.60579 1
gene 1 9 54 0.430665 0 53 0.430665 1
gene 1 9 55 3.01724 0 54 3.01724 1
gene 1 10 50 -2.72971 0 55 -2.72971 1
gene 1 10 51 0.161069 0 56 0.161069 1
gene 1 10 52 -3.25511 0 57 -3.25511 1
gene 1 10 53 3.29578 0 58 3.29578 1
gene 1 10 54 -1.59917 0 59 -1.59917 1
gene 1 10 55 0.527267 0 60 0.527267 1
gene 1 11 50 0.835305 0 61 0.835305 1
gene 1 11 51 1.18535 0 62 1.18535 1
gene 1 11 52 1.90821 0 63 1.90821 1
gene 1 11 53 3.73192 0 64 3.73192 1
gene 1 11 54 1.15276 0 65 1.15276 1
gene 1 11 55 1.15681 0 66 1.15681 1
gene 1 12 50 -1.49113 0 67 -1.49113 1
gene 1 12 51 -1.39489 0 68 -1.39489 1
gene 1 12 52 4.76769 0 69 4.76769 1
gene 1 12 53 2.90925 0 70 2.90925 1
gene 1 12 54 1.38274 0 71 1.38274 1
gene 1 12 55 0.945673 0 72 0.945673 1
gene 1 13 50 -0.166071 0 73 -0.166071 1
gene 1 13 51 1.22912 0 74 1.22912 1
gene 1 13 52 3.22973 0 75 3.22973 1
gene 1 13 53 -2.43992 0 76 -2.43992 1
gene 1 13 54 1.91275 0 77 1.91275 1
gene 1 13 55 0.211503 0 78 0.211503 1
gene 1 14 50 -3.55896 0 79 -3.55896 1
gene 1 14 51 0.575847 0 80 0.575847 1
gene 1 14 52 -0.304591 0 81 -0.304591 1
gene 1 14 53 -2.64367 0 82 -2.64367 1
gene 1 14 54 -3.79223 0 83 -3.79223 1
gene 1 14 55 1.57185 0 84 1.57185 1
gene 1 15 50 0.233043 0 85 0.233043 1
gene 1 15 51 1.55854 0 86 1.55854 1
gene 1 15 52 -4.53958 0 87 -4.53958 1
gene 1 15 53 1.49635 0 88 1.49635 1
gene 1 15 54 -0.11454 0 89 -0.11454 1
gene 1 15 55 2.29134 0 90 2.29134 1
gene 1 16 50 -2.10549 0 91 -2.10549 1
gene 1 16 51 -3.40391 0 92 -3.40391 1
gene 1 16 52 -1.05263 0 93 -1.05263 1
gene 1 16 53 -0.746774 0 94 -0.746774 1
gene 1 16 54 0.0202517 0 95 0.0202517 1
gene 1 16 55 2.25265 0 96 2.25265 1
gene 1 17 50 -3.88002 0 97 -3.88002 1
gene 1 17 51 -1.51124 0 98 -1.51124 1
gene 1 17 52 -3.12333 0 99 -3.12333 1
gene 1 17 53 1.06354 0 100 1.06354 1
gene 1 17 54 -1.15947 0 101 -1.15947 1
gene 1 17 55 2.66538 0 102 2.66538 1
gene 1 18 50 -2.9749 0 103 -2.9749 1
gene 1 18 51 4.31718 0 104 4.31718 1
gene 1 18 52 2.39045 0 105 2.39045 1
gene 1 18 53 0.794264 0 106 0.794264 1
gene 1 18 54 1.57278 0 107 1.57278 1
gene 1 18 55 -2.08751 0 108 -2.08751 1
gene 1 19 50 0.818364 0 109 0.818364 1
gene 1 19 51 -2.73297 0 110 -2.73297 1
gene 1 19 52 -1.86189 0 111 -1.86189 1
gene 1 19 53 -0.198782 0 112 -0.198782 1
gene 1 19 54 -1.11685 0 113 -1.11685 1
gene 1 19 55 1.7754 0 114 1.7754 1
gene 1 20 50 -3.11227 0 115 -3.11227 1
gene 1 20 51 -0.334194 0 116 -0.334194 1
gene 1 20 52 -1.10543 0 117 -1.10543 1
gene 1 20 53 2.33551 0 118 2.33551 1
gene 1 20 54 5 0 119 5 1
gene 1 20 55 3.64875 0 120 3.64875 1
gene 1 21 50 -0.303838 0 121 -0.303838 1
gene 1 21 51 3.85623 0 122 3.85623 1
gene 1 21 52 2.4356 0 123 2.4356 1
gene 1 21 53 -0.0074487 0 124 -0.0074487 1
gene 1 21 54 3.10221 0 125 3.10221 1
gene 1 21 55 -1.72607 0 126 -1.72607 1
gene 1 22 50 -0.0165908 0 127 -0.0165908 1
gene 1 22 51 2.56733 0 128 2.56733 1
gene 1 22 52 0.0604179 0 129 0.0604179 1
gene 1 22 53 0.752228 0 130 0.752228 1
gene 1 22 54 2.4243 0 131 2.4243 1
gene 1 22 55 -0.407968 0 132 -0.407968 1
gene 1 23 50 0.613293 0 133 0.613293 1
gene 1 23 51 -0.422049 0 134 -0.422049 1
gene 1 23 52 -0.909898 0 135 -0.909898 1
gene 1 23 53 1.21962 0 136 1.21962 1
gene 1 23 54 -0.0160317 0 137 -0.0160317 1
gene 1 23 55 1.96615 0 138 1.96615 1
gene 1 24 50 -0.276253 0 139 -0.276253 1
gene 1 24 51 -0.00820736 0 140 -0.00820736 1
gene 1 24 52 0.978668 0 141 0.978668 1
gene 1 24 53 -1.3938 0 142 -1.3938 1
gene 1 24 54 1.89284 0 143 1.89284 1
gene 1 24 55 -4.37751 0 144 -4.37751 1
gene 1 25 50 -0.336427 0 145 -0.336427 1
gene 1 25 51 -5 0 146 -5 1
gene 1 25 52 1.5495 0 147 1.5495 1
gene 1 25 53 -2.2961 0 148 -2.2961 1
gene 1 25 54 -1.50759 0 149 -1.50759 1
gene 1 25 55 2.53093 0 150 2.53093 1
gene 1 26 50 3.19435 0 151 3.19435 1
gene 1 26 51 -3.14022 0 152 -3.14022 1
gene 1 26 52 2.51038 0 153 2.51038 1
gene 1 26 53 -0.438526 0 154 -0.438526 1
gene 1 26 54 -2.63266 0 155 -2.63266 1
gene 1 26 55 -2.26684 0 156 -2.26684 1
gene 1 27 50 3.71908 0 157 3.71908 1
gene 1 27 51 3.58803 0 158 3.58803 1
gene 1 27 52 -0.739839 0 159 -0.739839 1
gene 1 27 53 1.50086 0 160 1.50086 1
gene 1 27 54 -3.11791 0 161 -3.11791 1
gene 1 27 55 1.08663 0 162 1.08663 1
gene 1 28 50 -2.71192 0 163 -2.71192 1
gene 1 28 51 1.21636 0 164 1.21636 1
gene 1 28 52 2.30431 0 165 2.30431 1
gene 1 28 53 -0.78234 0 166 -0.78234 1
gene 1 28 54 -0.978222 0 167 -0.978222 1
gene 1 28 55 3.12297 0 168 3.12297 1
gene 1 29 50 2.33727 0 169 2.33727 1
gene 1 29 51 3.45712 0 170 3.45712 1
gene 1 29 52 3.07127 0 171 3.07127 1
gene 1 29 53 -0.260284 0 172 -0.260284 1
gene 1 29 54 -2.38977 0 173 -2.38977 1
gene 1 29 55 -0.570341 0 174 -0.570341 1
gene 1 30 50 -1.84616 0 175 -1.84616 1
gene 1 30 51 -5 0 176 -5 1
gene 1 30 52 -3.13229 0 177 -3.13229 1
gene 1 30 53 2.13288 0 178 2.13288 1
gene 1 30 54 0.581528 0 179 0.581528 1
gene 1 30 55 -2.20116 0 180 -2.20116 1
gene 1 31 50 -4.95164 0 181 -4.95164 1
gene 1 31 51 -3.3782 0 182 -3.3782 1
gene 1 31 52 -0.595096 0 183 -0.595096 1
gene 1 31 53 -0.307604 0 184 -0.307604 1
gene 1 31 54 1.21684 0 185 1.21684 1
gene 1 31 55 -1.01084 0 186 -1.01084 1
gene 1 32 50 1.59152 0 187 1.59152 1
gene 1 32 51 4.86801 0 188 4.86801 1
gene 1 32 52 0.707241 0 189 0.707241 1
gene 1 32 53 1.41985 0 190 1.41985 1
gene 1 32 54 2.03879 0 191 2.03879 1
gene 1 32 55 0.640731 0 192 0.640731 1
gene 1 33 50 -3.76964 0 193 -3.76964 1
gene 1 33 51 3.23868 0 194 3.23868 1
gene 1 33 52 -2.50922 0 195 -2.50922 1
gene 1 33 53 -0.820749 0 196 -0.820749 1
gene 1 33 54 -1.3544 0 197 -1.3544 1
gene 1 33 55 3.61646 0 198 3.61646 1
gene 1 34 50 -1.39923 0 199 -1.39923 1
gene 1 34 51 3.55324 0 200 3.55324 1
gene 1 34 52 1.94921 0 201 1.94921 1
gene 1 34 53 2.41632 0 202 2.41632 1
gene 1 34 54 -3.68377 0 203 -3.68377 1
gene 1 34 55 -2.24961 0 204 -2.24961 1
gene 1 35 50 -1.01529 0 205 -1.01529 1
gene 1 35 51 1.7946 0 206 1.7946 1
gene 1 35 52 -0.177025 0 207 -0.177025 1
gene 1 35 53 4.23052 0 208 4.23052 1
gene 1 35 54 0.0754279 0 209 0.0754279 1
gene 1 35 55 -1.56212 0 210 -1.56212 1
gene 1 36 50 -2.32228 0 211 -2.32228 1
gene 1 36 51 2.76058 0 212 2.76058 1
gene 1 36 52 0.632798 0 213 0.632798 1
gene 1 36 53 1.9545 0 214 1.9545 1
gene 1 36 54 1.4089 0 215 1.4089 1
gene 1 36 55 -3.31528 0 216 -3.31528 1
gene 1 37 50 2.00058 0 217 2.00058 1
gene 1 37 51 -1.49693 0 218 -1.49693 1
gene 1 37 52 1.88241 0 219 1.88241 1
gene 1 37 53 -1.90397 0 220 -1.90397 1
gene 1 37 54 -0.32806 0 221 -0.32806 1
gene 1 37 55 0.36971 0 222 0.36971 1
gene 1 38 50 1.7503 0 223 1.7503 1
gene 1 38 51 3.2888 0 224 3.2888 1
gene 1 38 52 1.94902 0 225 1.94902 1
gene 1 38 53 -0.759451 0 226 -0.759451 1
gene 1 38 54 -1.32793 0 227 -1.32793 1
gene 1 38 55 -1.35081 0 228 -1.35081 1
gene 1 39 50 -0.203488 0 229 -0.203488 1
gene 1 39 51 -3.18929 0 230 -3.18929 1
gene 1 39 52 0.764368 0 231 0.764368 1
gene 1 39 53 2.23638 0 232 2.23638 1
gene 1 39 54 0.762841 0 233 0.762841 1
gene 1 39 55 0.415401 0 234 0.415401 1
gene 1 40 50 -4.98086 0 235 -4.98086 1
gene 1 40 51 -1.13489 0 236 -1.13489 1
gene 1 40 52 -0.469262 0 237 -0.469262 1
gene 1 40 53 -0.226109 0 238 -0.226109 1
gene 1 40 54 -0.904559 0 239 -0.904559 1
gene 1 40 55 -0.0239667 0 240 -0.0239667 1
gene 1 41 50 -0.767003 0 241 -0.767003 1
gene 1 41 51 -0.870626 0 242 -0.870626 1
gene 1 41 52 -3.07669 0 243 -3.07669 1
gene 1 41 53 -1.18119 0 244 -1.18119 1
gene 1 41 54 1.2764 0 245 1.2764 1
gene 1 41 55 0.335627 0 246 0.335627 1
gene 1 42 50 -0.239889 0 247 -0.239889 1
gene 1 42 51 -0.00900762 0 248 -0.00900762 1
gene 1 42 52 -0.287394 0 249 -0.287394 1
gene 1 42 53 0.367528 0 250 0.367528 1
gene 1 42 54 -2.43198 0 251 -2.43198 1
gene 1 42 55 -0.421436 0 252 -0.421436 1
gene 1 43 50 -0.836983 0 253 -0.836983 1
gene 1 43 51 -1.44572 0 254 -1.44572 1
gene 1 43 52 -0.0952405 0 255 -0.0952405 1
gene 1 43 53 -0.928338 0 256 -0.928338 1
gene 1 43 54 -0.0112515 0 257 -0.0112515 1
gene 1 43 55 -0.38082 0 258 -0.38082 1
gene 1 44 50 0.761135 0 259 0.761135 1
gene 1 44 51 0.0401874 0 260 0.0401874 1
gene 1 44 52 1.04849 0 261 1.04849 1
gene 1 44 53 1.8822 0 262 1.8822 1
gene 1 44 54 0.211392 0 263 0.211392 1
gene 1 44 55 -0.053978 0 264 -0.053978 1
gene 1 45 50 -1.00854 0 265 -1.00854 1
gene 1 45 51 -1.0409 0 266 -1.0409 1
gene 1 45 52 -0.17493 0 267 -0.17493 1
gene 1 45 53 0.349388 0 268 0.349388 1
gene 1 45 54 0.193006 0 269 0.193006 1
gene 1 45 55 -0.100208 0 270 -0.100208 1
gene 1 46 50 -0.967819 0 271 -0.967819 1
gene 1 46 51 -1.7008 0 272 -1.7008 1
gene 1 46 52 -0.719392 0 273 -0.719392 1
gene 1 46 53 0.328968 0 274 0.328968 1
gene 1 46 54 2.95887 0 275 2.95887 1
gene 1 46 55 -1.53044 0 276 -1.53044 1
gene 1 47 50 -0.832043 0 277 -0.832043 1
gene 1 47 51 -0.341448 0 278 -0.341448 1
gene 1 47 52 2.03521 0 279 2.03521 1
gene 1 47 53 0.328458 0 280 0.328458 1
gene 1 47 54 -0.0232849 0 281 -0.0232849 1
gene 1 47 55 -0.0147177 0 282 -0.0147177 1
gene 1 48 50 0.479273 0 283 0.479273 1
gene 1 48 51 1.07122 0 284 1.07122 1
gene 1 48 52 0.9863 0 285 0.9863 1
gene 1 48 53 1.18833 0 286 1.18833 1
gene 1 48 54 0.117199 0 287 0.117199 1
gene 1 48 55 0.892194 0 288 0.892194 1
gene 1 49 50 -0.53308 0 289 -0.53308 1
gene 1 49 51 1.41108 0 290 1.41108 1
gene 1 49 52 0.237289 0 291 0.237289 1
gene 1 49 53 -1.5498 0 292 -1.5498 1
gene 1 49 54 -0.0363927 0 293 -0.0363927 1
gene 1 49 55 -0.107859 0 294 -0.107859 1
genomeend 1


