genomestart 1
trait 1 0.1 0 0 0 0 0 0 0
node 1 0 1 1
node 2 0 1 1
node 3 0 1 1
node 4 0 1 1
node 5 0 1 1
node 6 0 1 1
node 7 0 1 1
node 8 0 1 1
node 9 0 1 1
node 10 0 1 1
node 11 0 1 1
node 12 0 1 1
node 13 0 1 1
node 14 0 1 1
node 15 0 1 1
node 16 0 1 1
node 17 0 1 1
node 18 0 1 1
node 19 0 1 1
node 20 0 1 1
node 21 0 1 1
node 22 0 1 1
node 23 0 1 1
node 24 0 1 1
node 25 0 1 3
node 26 0 0 2
node 27 0 0 2
node 28 0 0 0
node 29 0 0 0
node 30 0 0 0
node 31 0 0 0
node 32 0 0 0
node 33 0 0 0
node 34 0 0 0
node 35 0 0 0
node 36 0 0 0
node 37 0 0 0
node 38 0 0 0
gene 1 1 26 0.0 0 1 0.0 1
gene 1 1 27 0.0 0 2 0.0 1
gene 1 2 26 0.0 0 3 0.0 1
gene 1 2 27 0.0 0 4 0.0 1
gene 1 3 26 0.0 0 5 0.0 1
gene 1 3 27 0.0 0 6 0.0 1
gene 1 4 26 0.0 0 7 0.0 1
gene 1 4 27 0.0 0 8 0.0 1
gene 1 5 26 0.0 0 9 0.0 1
gene 1 5 27 0.0 0 10 0.0 1
gene 1 6 26 0.0 0 11 0.0 1
gene 1 6 27 0.0 0 12 0.0 1
gene 1 7 26 0.0 0 13 0.0 1
gene 1 7 27 0.0 0 14 0.0 1
gene 1 8 26 0.0 0 15 0.0 1
gene 1 8 27 0.0 0 16 0.0 1
gene 1 20 26 0.0 0 39 0.0 1
gene 1 20 27 0.0 0 40 0.0 1
gene 1 21 26 0.0 0 41 0.0 1
gene 1 21 27 0.0 0 42 0.0 1
gene 1 22 26 0.0 0 43 0.0 1
gene 1 22 27 0.0 0 44 0.0 1
gene 1 23 26 0.0 0 45 0.0 1
gene 1 23 27 0.0 0 46 0.0 1
gene 1 24 26 0.0 0 47 0.0 1
gene 1 24 27 0.0 0 48 0.0 1
gene 1 25 26 0.0 0 49 0.0 1
gene 1 25 27 0.0 0 50 0.0 1
gene 1 17 28 0.0 0 51 0.0 1
gene 1 18 29 0.0 0 52 0.0 1
gene 1 19 30 0.0 0 53 0.0 1
gene 1 28 26 0.0 0 54 0.0 1
gene 1 28 27 0.0 0 55 0.0 1
gene 1 29 26 0.0 0 56 0.0 1
gene 1 29 27 0.0 0 57 0.0 1
gene 1 30 26 0.0 0 58 0.0 1
gene 1 30 27 0.0 0 59 0.0 1
gene 1 9 31 0.0 0 60 0.0 1
gene 1 10 32 0.0 0 61 0.0 1
gene 1 11 33 0.0 0 62 0.0 1
gene 1 12 34 0.0 0 63 0.0 1
gene 1 13 35 0.0 0 64 0.0 1
gene 1 14 36 0.0 0 65 0.0 1
gene 1 15 37 0.0 0 66 0.0 1
gene 1 16 38 0.0 0 67 0.0 1
gene 1 31 26 0.0 0 68 0.0 1
gene 1 31 27 0.0 0 69 0.0 1
gene 1 32 26 0.0 0 70 0.0 1
gene 1 32 27 0.0 0 71 0.0 1
gene 1 33 26 0.0 0 72 0.0 1
gene 1 33 27 0.0 0 73 0.0 1
gene 1 34 26 0.0 0 74 0.0 1
gene 1 34 27 0.0 0 75 0.0 1
gene 1 35 26 0.0 0 76 0.0 1
gene 1 35 27 0.0 0 77 0.0 1
gene 1 36 26 0.0 0 78 0.0 1
gene 1 36 27 0.0 0 79 0.0 1
gene 1 37 26 0.0 0 80 0.0 1
gene 1 37 27 0.0 0 81 0.0 1
gene 1 38 26 0.0 0 82 0.0 1
gene 1 38 27 0.0 0 83 0.0 1
genomeend 1
